{
  "features_info":
    {
      "float_features":
        [
          {
            "borders":
              [
                -0.70393180847167969,
                -0.57409858703613281,
                -0.44243353605270386,
                -0.40014219284057617,
                -0.30065566301345825,
                -0.28402000665664673,
                -0.26934599876403809,
                -0.22245703637599945,
                -0.14358542859554291,
                -0.13122907280921936,
                -0.12338486313819885,
                -0.11299009621143341,
                -0.093179196119308472,
                -0.091925375163555145,
                -0.080761358141899109,
                -0.067960172891616821,
                -0.065099924802780151,
                -0.063475370407104492,
                -0.058528020977973938,
                -0.055247090756893158,
                -0.038582727313041687,
                -0.0013986796839162707,
                0.035858895629644394,
                0.044514678418636322,
                0.099496990442276001,
                0.10675811767578125,
                0.10927899926900864,
                0.13063745200634003,
                0.14063991606235504,
                0.18867310881614685,
                0.20929262042045593,
                0.21699132025241852,
                0.23477953672409058,
                0.24405670166015625,
                0.25524377822875977,
                0.2666771411895752,
                0.27950185537338257,
                0.29329675436019897,
                0.30876660346984863
              ],
            "feature_id":"return_1",
            "feature_index":0,
            "flat_feature_index":0,
            "has_nans":false,
            "nan_value_treatment":"AsIs"
          },
          {
            "borders":
              [
                -1.7775154113769531,
                -1.210828423500061,
                -0.99558925628662109,
                -0.85154080390930176,
                -0.6802293062210083,
                -0.62671267986297607,
                -0.58246719837188721,
                -0.34756892919540405,
                -0.33493411540985107,
                -0.26359540224075317,
                -0.18729402124881744,
                -0.15624237060546875,
                -0.13683100044727325,
                -0.064205780625343323,
                -0.05293666198849678,
                0.012478942051529884,
                0.10186509788036346,
                0.16583472490310669,
                0.19162970781326294,
                0.19595435261726379,
                0.21731242537498474,
                0.24236220121383667,
                0.24838103353977203,
                0.25496131181716919,
                0.27008169889450073,
                0.27862298488616943,
                0.31590664386749268,
                0.32629650831222534,
                0.65109133720397949,
                1.8106379508972168
              ],
            "feature_id":"return_3",
            "feature_index":1,
            "flat_feature_index":1,
            "has_nans":false,
            "nan_value_treatment":"AsIs"
          },
          {
            "borders":
              [
                -1.5777721405029297,
                -0.45008969306945801,
                -0.23002326488494873,
                -0.05508461594581604,
                0.0093857068568468094,
                0.011287318542599678,
                0.013705670833587646,
                0.049384459853172302,
                0.062541037797927856,
                0.093953505158424377,
                0.29598540067672729,
                1.5870404243469238
              ],
            "feature_id":"return_5",
            "feature_index":2,
            "flat_feature_index":2,
            "has_nans":false,
            "nan_value_treatment":"AsIs"
          },
          {
            "borders":
              [
                -3.2523307800292969,
                -0.22227960824966431,
                -0.19686891138553619,
                0.017945267260074615,
                0.054973751306533813,
                0.13343754410743713,
                0.13641384243965149,
                0.2030545175075531,
                0.32596254348754883,
                0.51374220848083496
              ],
            "feature_id":"return_10",
            "feature_index":3,
            "flat_feature_index":3,
            "has_nans":false,
            "nan_value_treatment":"AsIs"
          },
          {
            "borders":
              [
                -4.4956521987915039,
                -1.8223631381988525,
                -1.3761948347091675,
                -1.0789334774017334,
                -1.0363314151763916,
                -0.88285374641418457,
                -0.74391311407089233,
                -0.60430073738098145,
                -0.023071601986885071,
                0.037590451538562775,
                0.054122492671012878,
                0.1714264452457428,
                0.41669610142707825,
                1.5210058689117432
              ],
            "feature_id":"return_20",
            "feature_index":4,
            "flat_feature_index":4,
            "has_nans":false,
            "nan_value_treatment":"AsIs"
          },
          {
            "borders":
              [
                0.014249164611101151,
                0.017164833843708038,
                0.021936137229204178,
                0.029659448191523552,
                0.032103165984153748,
                0.032814890146255493,
                0.033542048186063766,
                0.03423164039850235,
                0.035607188940048218,
                0.037576425820589066,
                0.038267925381660461,
                0.040160953998565674,
                0.041414346545934677,
                0.042038083076477051,
                0.042645692825317383,
                0.044484563171863556,
                0.04983954131603241,
                0.052187029272317886,
                0.063155531883239746,
                0.06813502311706543,
                0.081857942044734955,
                0.082551322877407074,
                0.089628294110298157,
                0.092541307210922241,
                0.10147886723279953,
                0.10304770618677139,
                0.10469981282949448,
                0.10712967813014984,
                0.11126929521560669,
                0.1121370941400528,
                0.11950604617595673,
                0.12331530451774597,
                0.14131981134414673,
                0.14378786087036133,
                0.1461346447467804,
                0.15801537036895752,
                0.16073203086853027,
                0.16510626673698425,
                0.18448010087013245,
                0.18819835782051086,
                0.19382163882255554,
                0.20244216918945313,
                0.21684491634368896,
                0.27738595008850098,
                0.31674271821975708,
                0.34749704599380493,
                0.62212204933166504,
                0.68204778432846069,
                0.90854012966156006,
                1.1392116546630859,
                1.7239830493927002
              ],
            "feature_id":"volatility_10",
            "feature_index":5,
            "flat_feature_index":5,
            "has_nans":false,
            "nan_value_treatment":"AsIs"
          },
          {
            "borders":
              [
                0.019546451047062874,
                0.022619364783167839,
                0.029242046177387238,
                0.034546852111816406,
                0.046217858791351318,
                0.052274338901042938,
                0.052951905876398087,
                0.054317586123943329,
                0.055640842765569687,
                0.06415344774723053,
                0.065460957586765289,
                0.066072762012481689,
                0.067265301942825317,
                0.068566039204597473,
                0.073480099439620972,
                0.092849969863891602,
                0.096223130822181702,
                0.096970111131668091,
                0.1004527360200882,
                0.10915914177894592,
                0.11713753640651703,
                0.13405661284923553,
                0.15184462070465088,
                0.25368618965148926,
                0.26904672384262085,
                0.28638771176338196,
                0.36031460762023926,
                0.37071466445922852
              ],
            "feature_id":"volatility_20",
            "feature_index":6,
            "flat_feature_index":6,
            "has_nans":false,
            "nan_value_treatment":"AsIs"
          },
          {
            "borders":
              [
                21.859001159667969,
                22.192192077636719,
                44.471256256103516,
                48.245552062988281,
                51.149578094482422,
                52.193153381347656,
                54.064064025878906,
                54.97747802734375,
                56.225776672363281,
                58.151397705078125,
                63.162147521972656,
                63.879928588867188,
                68.404075622558594,
                72.209762573242188,
                72.740882873535156,
                86.655807495117188
              ],
            "feature_id":"candle_body_pct",
            "feature_index":7,
            "flat_feature_index":7,
            "has_nans":false,
            "nan_value_treatment":"AsIs"
          },
          {
            "borders":
              [
                0.0024043084122240543,
                0.010915838181972504,
                0.013564839959144592,
                0.021137181669473648,
                0.031513266265392303,
                0.032965764403343201,
                0.038024879992008209,
                0.039586715400218964,
                0.042181804776191711,
                0.046983927488327026,
                0.049585167318582535,
                0.050701983273029327,
                0.052501477301120758,
                0.055090092122554779,
                0.055899381637573242,
                0.059793710708618164,
                0.060745038092136383,
                0.063940316438674927,
                0.070197612047195435,
                0.071181133389472961,
                0.072882503271102905,
                0.075921222567558289,
                0.07664915919303894,
                0.082602068781852722,
                0.091160297393798828,
                0.10044011473655701,
                0.10749110579490662,
                0.11065735667943954,
                0.11410170793533325,
                0.11967653036117554,
                0.12523046135902405,
                0.13513031601905823,
                0.15707775950431824,
                0.16574355959892273,
                0.17256128787994385,
                0.17562970519065857,
                0.18984201550483704,
                0.19568908214569092,
                0.19756948947906494,
                0.20145219564437866,
                0.20344951748847961,
                0.21149852871894836,
                0.22516310214996338,
                0.24824932217597961,
                0.25724023580551147,
                0.26946389675140381,
                0.27589905261993408,
                0.27932178974151611,
                0.30216383934020996,
                0.3060486912727356,
                0.31006020307540894,
                0.31433591246604919,
                0.33218848705291748,
                0.34240150451660156,
                0.3530571460723877,
                0.37045422196388245,
                0.45514270663261414,
                0.68690425157546997,
                0.90318429470062256,
                0.97311830520629883,
                1.0600203275680542,
                1.1774436235427856,
                1.3443119525909424,
                1.6462283134460449,
                2.3309059143066406
              ],
            "feature_id":"candle_range_pct",
            "feature_index":8,
            "flat_feature_index":8,
            "has_nans":false,
            "nan_value_treatment":"AsIs"
          },
          {
            "borders":
              [
                1.0914950370788574,
                2.0806276798248291,
                2.3166368007659912,
                7.7025365829467773,
                13.033367156982422,
                19.037979125976563,
                35.735931396484375,
                55.523445129394531
              ],
            "feature_id":"upper_wick_pct",
            "feature_index":9,
            "flat_feature_index":9,
            "has_nans":false,
            "nan_value_treatment":"AsIs"
          },
          {
            "borders":
              [
                2.6277427673339844,
                11.083192825317383,
                17.373336791992188,
                18.736701965332031,
                22.714988708496094,
                25.724788665771484,
                30.790019989013672,
                34.626129150390625,
                38.493064880371094,
                46.173370361328125,
                51.333572387695313,
                53.693958282470703,
                58.547573089599609,
                59.946525573730469,
                64.85430908203125,
                66.760826110839844,
                67.914962768554688
              ],
            "feature_id":"lower_wick_pct",
            "feature_index":10,
            "flat_feature_index":10,
            "has_nans":false,
            "nan_value_treatment":"AsIs"
          },
          {
            "borders":
              [
                -74.579360961914063,
                -57.966522216796875,
                -38.604957580566406,
                -13.481288909912109,
                -11.194835662841797,
                -6.3882036209106445,
                -5.7748317718505859,
                -4.5099930763244629,
                -3.862889289855957,
                -1.8974313735961914,
                7.8540353775024414,
                18.249965667724609,
                19.991237640380859,
                22.722133636474609,
                23.648338317871094,
                24.58778190612793,
                26.585899353027344,
                37.218147277832031,
                39.480327606201172,
                52.921455383300781,
                54.388328552246094,
                62.366462707519531,
                65.833610534667969,
                67.64154052734375,
                69.540740966796875,
                71.432403564453125,
                73.404266357421875,
                77.5972900390625,
                81.722854614257813,
                84.076492309570313,
                86.57080078125,
                94.163619995117188,
                106.33381652832031
              ],
            "feature_id":"volume_change_5",
            "feature_index":11,
            "flat_feature_index":11,
            "has_nans":false,
            "nan_value_treatment":"AsIs"
          },
          {
            "borders":
              [
                -1.2703547477722168,
                -1.2341790199279785,
                -0.62516933679580688,
                -0.41879171133041382,
                -0.40171140432357788,
                -0.37853774428367615,
                -0.37287420034408569,
                -0.36671233177185059,
                -0.34846088290214539,
                -0.33037286996841431,
                -0.32418560981750488,
                -0.3048737645149231,
                -0.28457087278366089,
                -0.27796554565429688,
                -0.26362842321395874,
                -0.2565610408782959,
                -0.23399244248867035,
                -0.209537073969841,
                -0.17629876732826233,
                -0.16764332354068756,
                -0.14996360242366791,
                -0.12188127636909485,
                -0.11252683401107788,
                -0.093328803777694702,
                -0.063022315502166748,
                -0.042691942304372787,
                -0.031472362577915192,
                -0.020608693361282349,
                -0.0094015877693891525,
                0.0014718272723257542,
                0.025230757892131805,
                0.11544826626777649,
                0.28123044967651367,
                0.3144717812538147,
                0.33215367794036865,
                0.42800343036651611,
                0.44814100861549377,
                0.4878075122833252,
                0.60104060173034668,
                0.65174531936645508,
                0.76087379455566406,
                0.85176920890808105,
                0.88394773006439209,
                1.0203003883361816,
                1.0555415153503418,
                1.6880977153778076,
                1.7489596605300903,
                2.0230028629302979,
                2.6791305541992188,
                3.0456500053405762,
                3.1921911239624023,
                3.3495230674743652,
                3.5182425975799561
              ],
            "feature_id":"volume_zscore_20",
            "feature_index":12,
            "flat_feature_index":12,
            "has_nans":false,
            "nan_value_treatment":"AsIs"
          },
          {
            "borders":
              [
                -1.2252920866012573,
                -0.98448854684829712,
                -0.85198819637298584,
                -0.74764621257781982,
                -0.67803663015365601,
                -0.57693171501159668,
                -0.28516983985900879,
                -0.12993589043617249,
                -0.10935352742671967,
                -0.052198432385921478,
                0.039134040474891663,
                0.063771270215511322,
                0.072740249335765839,
                0.082799121737480164,
                0.11890101432800293,
                0.13708826899528503,
                0.14042878150939941,
                0.14390695095062256,
                0.14760598540306091,
                0.19005914032459259,
                0.2062918096780777,
                0.24602729082107544,
                0.26194924116134644,
                0.36487644910812378,
                0.46461230516433716,
                1.1582152843475342
              ],
            "feature_id":"price_vs_sma_10",
            "feature_index":13,
            "flat_feature_index":13,
            "has_nans":false,
            "nan_value_treatment":"AsIs"
          },
          {
            "borders":
              [
                -1.779524564743042,
                -1.4622135162353516,
                -1.258004903793335,
                -1.122252345085144,
                -1.0149223804473877,
                -0.92905551195144653,
                -0.51505744457244873,
                -0.22054824233055115,
                -0.11696639657020569,
                -0.010744122788310051,
                0.049193535000085831,
                0.10000751912593842,
                0.10271449387073517,
                0.14561229944229126,
                0.16056859493255615,
                0.22094166278839111
              ],
            "feature_id":"price_vs_sma_20",
            "feature_index":14,
            "flat_feature_index":14,
            "has_nans":false,
            "nan_value_treatment":"AsIs"
          },
          {
            "borders":
              [
                -1.0229916572570801,
                -0.28837794065475464,
                -0.21441471576690674,
                -0.16247895359992981,
                -0.08269093930721283,
                -0.050096157938241959,
                0.013880316168069839,
                0.028179563581943512,
                0.077300183475017548,
                0.16233742237091064,
                0.16669601202011108,
                0.19036394357681274,
                0.24444369971752167,
                0.26322987675666809
              ],
            "feature_id":"price_vs_sma_50",
            "feature_index":15,
            "flat_feature_index":15,
            "has_nans":false,
            "nan_value_treatment":"AsIs"
          },
          {
            "borders":
              [
                -1.0310617685317993,
                -0.83698570728302002,
                -0.57427287101745605,
                -0.45720160007476807,
                -0.17084592580795288,
                -0.12976668775081635,
                -0.043267533183097839,
                -0.024017803370952606,
                0.0072406274266541004,
                0.053798526525497437,
                0.058140121400356293,
                0.072855770587921143,
                0.074734956026077271,
                0.082099147140979767,
                0.092477619647979736,
                0.099364116787910461,
                0.12350887060165405,
                0.13281092047691345,
                0.13612481951713562,
                0.16727662086486816,
                0.32043346762657166
              ],
            "feature_id":"price_vs_ema_10",
            "feature_index":16,
            "flat_feature_index":16,
            "has_nans":false,
            "nan_value_treatment":"AsIs"
          },
          {
            "borders":
              [
                -0.1158340722322464,
                -0.081723734736442566,
                0.014501739293336868,
                0.021727198734879494,
                0.051424287259578705,
                0.062031485140323639,
                0.10521090030670166,
                0.10789684951305389,
                0.14095532894134521,
                0.14428059756755829,
                0.15524964034557343,
                0.21924591064453125
              ],
            "feature_id":"price_vs_ema_20",
            "feature_index":17,
            "flat_feature_index":17,
            "has_nans":false,
            "nan_value_treatment":"AsIs"
          },
          {
            "borders":
              [
                -3.7343826293945313,
                -0.37267926335334778,
                -0.30489790439605713,
                -0.29697483777999878,
                -0.28941547870635986,
                -0.19525907933712006,
                -0.15802031755447388,
                -0.13344267010688782,
                -0.11478593945503235,
                -0.11113759875297546,
                -0.097426831722259521,
                -0.040471229702234268,
                0.1100800633430481,
                0.14960390329360962,
                0.54445326328277588,
                3.1459484100341797
              ],
            "feature_id":"price_vs_ema_50",
            "feature_index":18,
            "flat_feature_index":18,
            "has_nans":false,
            "nan_value_treatment":"AsIs"
          },
          {
            "borders":
              [
                -0.15827083587646484,
                -0.12650831043720245,
                -0.097348764538764954,
                -0.048966940492391586,
                -0.046488575637340546,
                -0.0031029880046844482,
                0.013255611062049866,
                0.016411855816841125,
                0.041257601231336594,
                0.099426969885826111,
                0.13864004611968994,
                0.15510234236717224
              ],
            "feature_id":"sma_20_slope",
            "feature_index":19,
            "flat_feature_index":19,
            "has_nans":false,
            "nan_value_treatment":"AsIs"
          },
          {
            "borders":
              [
                -0.045570768415927887,
                -0.013468981720507145,
                -0.0013175809290260077,
                0.022018581628799438,
                0.029710263013839722,
                0.047546215355396271,
                0.17398332059383392,
                0.21668910980224609,
                0.25875669717788696,
                0.27171757817268372,
                0.28621912002563477,
                0.36859351396560669
              ],
            "feature_id":"ema_20_slope",
            "feature_index":20,
            "flat_feature_index":20,
            "has_nans":false,
            "nan_value_treatment":"AsIs"
          },
          {
            "borders":
              [
                25.241571426391602,
                32.109264373779297,
                36.688499450683594,
                38.099563598632813,
                38.321090698242188,
                39.133171081542969,
                40.078651428222656,
                42.805591583251953,
                43.059700012207031,
                44.559009552001953,
                45.494163513183594,
                45.828834533691406,
                50.343135833740234,
                51.240348815917969,
                57.657966613769531,
                59.726383209228516,
                62.187191009521484,
                66.076004028320313
              ],
            "feature_id":"rsi_14",
            "feature_index":21,
            "flat_feature_index":21,
            "has_nans":false,
            "nan_value_treatment":"AsIs"
          },
          {
            "borders":
              [
                -0.068773895502090454,
                -0.043319676071405411,
                -0.027705423533916473,
                -0.0085105709731578827,
                -0.0076850224286317825,
                -0.0045059286057949066,
                0.027297630906105042,
                0.052222192287445068,
                0.074264287948608398,
                0.077963210642337799,
                0.11121440678834915,
                0.11679637432098389,
                0.15127971768379211
              ],
            "feature_id":"macd_line",
            "feature_index":22,
            "flat_feature_index":22,
            "has_nans":false,
            "nan_value_treatment":"AsIs"
          },
          {
            "borders":
              [
                -1.1449911594390869,
                -0.27720466256141663,
                -0.24354752898216248,
                -0.16657394170761108,
                -0.08917728066444397,
                -0.077029362320899963,
                -0.073314547538757324,
                -0.059579405933618546,
                -0.058095462620258331,
                -0.052163649350404739,
                -0.047921203076839447,
                -0.028726588934659958,
                -0.014156335964798927,
                -0.01076958142220974,
                -0.0090241041034460068,
                -0.0050466600805521011,
                -0.0035250131040811539,
                -0.0027151061221957207,
                -0.0004826404619961977,
                0.0047230888158082962,
                0.0076420092955231667,
                0.036146063357591629,
                0.045094050467014313,
                0.048895083367824554,
                0.054170005023479462,
                0.067893117666244507,
                0.084401480853557587,
                0.09079248458147049,
                0.093015678226947784,
                0.27298516035079956
              ],
            "feature_id":"macd_signal",
            "feature_index":23,
            "flat_feature_index":23,
            "has_nans":false,
            "nan_value_treatment":"AsIs"
          },
          {
            "borders":
              [
                -0.097217097878456116,
                -0.055323541164398193,
                -0.045637063682079315,
                -0.038230232894420624,
                -0.015265053138136864,
                -0.013745691627264023,
                -0.013009317219257355,
                -0.01228887215256691,
                -0.011953696608543396,
                -0.0086731258779764175,
                -0.0065802894532680511,
                -0.0051765646785497665,
                -0.0019939637277275324,
                -0.00096962112002074718,
                -0.00071478367317467928,
                0.0012726373970508575,
                0.0017731506377458572,
                0.0022927690297365189,
                0.0025489581748843193,
                0.0028193027246743441,
                0.003072262043133378,
                0.0038535080384463072,
                0.0044029173441231251,
                0.0049335435032844543,
                0.0052115181460976601,
                0.0060809096321463585,
                0.0063735982403159142,
                0.0066675655543804169,
                0.0069418768398463726,
                0.0072317644953727722,
                0.0078525412827730179,
                0.0081557668745517731,
                0.064712762832641602,
                0.06679651141166687
              ],
            "feature_id":"macd_hist",
            "feature_index":24,
            "flat_feature_index":24,
            "has_nans":false,
            "nan_value_treatment":"AsIs"
          },
          {
            "borders":
              [
                0.049234971404075623,
                0.054433867335319519,
                0.058726534247398376,
                0.061295606195926666,
                0.071135587990283966,
                0.074984103441238403,
                0.077724792063236237,
                0.079468652606010437,
                0.080380432307720184,
                0.082095883786678314,
                0.086385384202003479,
                0.087160885334014893,
                0.088001586496829987,
                0.088833779096603394,
                0.089629814028739929,
                0.090437091886997223,
                0.091300353407859802,
                0.092085182666778564,
                0.092929333448410034,
                0.093775250017642975,
                0.095401354134082794,
                0.097030393779277802,
                0.098641037940979004,
                0.099408507347106934,
                0.10100824385881424,
                0.10740654915571213,
                0.10823380947113037,
                0.11072953045368195,
                0.11158020794391632,
                0.11245846748352051,
                0.11418601870536804,
                0.11501749604940414,
                0.11663740873336792,
                0.11908116191625595,
                0.12144127488136292,
                0.12556840479373932,
                0.12640485167503357,
                0.12728086113929749,
                0.12809948623180389,
                0.13650909066200256,
                0.13829785585403442,
                0.14005455374717712,
                0.14094346761703491,
                0.14183755218982697,
                0.14380156993865967,
                0.144696444272995,
                0.14752164483070374,
                0.15026623010635376,
                0.1531180739402771,
                0.15604881942272186,
                0.15913775563240051,
                0.16012652218341827,
                0.16120633482933044,
                0.16336643695831299,
                0.16444411873817444,
                0.16647008061408997,
                0.17199593782424927,
                0.17316818237304688,
                0.17655627429485321,
                0.17894220352172852,
                0.18018800020217896,
                0.18639457225799561,
                0.1941225528717041,
                0.1969389021396637,
                0.2025146484375,
                0.20395383238792419,
                0.20539546012878418,
                0.20689517259597778,
                0.20845970511436462,
                0.2116742730140686,
                0.21484352648258209,
                0.22157964110374451,
                0.22502054274082184,
                0.22853654623031616,
                0.2303089052438736,
                0.2416699230670929,
                0.24366676807403564,
                0.24584615230560303,
                0.25017854571342468,
                0.25692373514175415,
                0.25919702649116516,
                0.26387885212898254,
                0.2663949728012085,
                0.26902633905410767,
                0.27144914865493774,
                0.27395641803741455,
                0.27661865949630737,
                0.27929762005805969,
                0.28206372261047363,
                0.28478947281837463,
                0.28745421767234802,
                0.29018133878707886,
                0.29297274351119995,
                0.29591703414916992,
                0.29884910583496094,
                0.30841559171676636,
                0.31195753812789917,
                0.31549102067947388,
                0.37753137946128845,
                1.1560956239700317,
                1.4769158363342285,
                2.0421524047851563
              ],
            "feature_id":"atr_14",
            "feature_index":25,
            "flat_feature_index":25,
            "has_nans":false,
            "nan_value_treatment":"AsIs"
          },
          {
            "borders":
              [
                -0.090209245681762695,
                -0.031337320804595947,
                0.1163972020149231,
                0.47888296842575073,
                0.50238460302352905,
                0.57167148590087891,
                0.620094895362854,
                0.64889240264892578,
                0.70273983478546143,
                0.73069167137145996,
                0.76302182674407959,
                0.77441799640655518,
                0.78977972269058228,
                0.85892325639724731,
                0.88440346717834473
              ],
            "feature_id":"bollinger_position_20",
            "feature_index":26,
            "flat_feature_index":26,
            "has_nans":false,
            "nan_value_treatment":"AsIs"
          },
          {
            "borders":
              [
                0.10599037259817123,
                0.12346571683883667,
                0.13127574324607849,
                0.13808545470237732,
                0.14467626810073853,
                0.15113610029220581,
                0.18186217546463013,
                0.21638791263103485,
                0.28487741947174072,
                0.35736298561096191,
                0.48394316434860229,
                0.50046932697296143,
                0.51266777515411377,
                0.53344094753265381,
                0.56553494930267334,
                0.57486319541931152,
                0.62517428398132324,
                0.67414480447769165,
                0.70968681573867798,
                0.7217031717300415,
                0.72810208797454834,
                0.8600127100944519,
                0.92752760648727417,
                1.1260759830474854,
                1.1626811027526855,
                2.119870662689209,
                2.1695857048034668,
                2.339425802230835,
                2.7233357429504395,
                4.8694829940795898,
                8.0973873138427734,
                11.412631034851074
              ],
            "feature_id":"bollinger_width_20",
            "feature_index":27,
            "flat_feature_index":27,
            "has_nans":false,
            "nan_value_treatment":"AsIs"
          },
          {
            "borders":
              [
                5.1888750022044405e-05,
                0.017877116799354553,
                0.11496254801750183,
                0.16645354032516479,
                0.18832623958587646,
                0.19227662682533264,
                0.19695031642913818,
                0.20411694049835205,
                0.27151429653167725,
                0.29407140612602234,
                0.30560171604156494,
                0.53190135955810547,
                0.5768846869468689,
                0.58340978622436523,
                0.64716577529907227,
                0.66695857048034668,
                0.68311309814453125,
                0.69449496269226074,
                0.72739303112030029,
                0.73136931657791138,
                0.73514747619628906,
                0.7531057596206665,
                0.75711393356323242,
                0.76463449001312256,
                0.7666018009185791,
                0.76864206790924072,
                0.77189648151397705,
                0.77898263931274414,
                0.78611171245574951,
                0.80403709411621094,
                0.82854390144348145,
                0.83496344089508057,
                0.8570827841758728
              ],
            "feature_id":"high_low_position_20",
            "feature_index":28,
            "flat_feature_index":28,
            "has_nans":false,
            "nan_value_treatment":"AsIs"
          },
          {
            "borders":
              [
                3.9948867197381333e-05,
                0.023595534265041351,
                0.030803117901086807,
                0.037408165633678436,
                0.044229157269001007,
                0.05064113438129425,
                0.057080201804637909,
                0.062555901706218719,
                0.068685904145240784,
                0.074085414409637451,
                0.079940825700759888,
                0.085345044732093811,
                0.090826600790023804,
                0.095602884888648987,
                0.10004390031099319,
                0.10531014949083328,
                0.11099910736083984,
                0.11542651057243347,
                0.12002824246883392,
                0.15104532241821289,
                0.16373533010482788,
                0.19507870078086853,
                0.30157488584518433,
                0.41069358587265015,
                0.44732636213302612,
                0.46162509918212891,
                0.64712750911712646,
                0.67568981647491455,
                0.68630492687225342,
                0.71417033672332764,
                0.74861109256744385,
                0.77175545692443848,
                0.79173499345779419,
                0.80151242017745972,
                0.82555663585662842,
                0.82897746562957764,
                0.83604353666305542,
                0.83986145257949829,
                0.84697890281677246,
                0.85055422782897949,
                0.85449492931365967,
                0.87369775772094727,
                0.87737131118774414,
                0.88526999950408936,
                0.90124750137329102,
                0.90587329864501953,
                0.91406965255737305,
                0.91859251260757446,
                0.92304670810699463,
                0.92743825912475586,
                0.9465334415435791
              ],
            "feature_id":"high_low_position_50",
            "feature_index":29,
            "flat_feature_index":29,
            "has_nans":false,
            "nan_value_treatment":"AsIs"
          },
          {
            "borders":
              [
                0.5
              ],
            "feature_id":"higher_high",
            "feature_index":30,
            "flat_feature_index":30,
            "has_nans":false,
            "nan_value_treatment":"AsIs"
          },
          {
            "borders":
              [
                0.5
              ],
            "feature_id":"lower_high",
            "feature_index":31,
            "flat_feature_index":31,
            "has_nans":false,
            "nan_value_treatment":"AsIs"
          },
          {
            "borders":
              [
              ],
            "feature_id":"higher_low",
            "feature_index":32,
            "flat_feature_index":32,
            "has_nans":false,
            "nan_value_treatment":"AsIs"
          },
          {
            "borders":
              [
              ],
            "feature_id":"lower_low",
            "feature_index":33,
            "flat_feature_index":33,
            "has_nans":false,
            "nan_value_treatment":"AsIs"
          },
          {
            "borders":
              [
                -0.5,
                0.5
              ],
            "feature_id":"structure_trend",
            "feature_index":34,
            "flat_feature_index":34,
            "has_nans":false,
            "nan_value_treatment":"AsIs"
          },
          {
            "borders":
              [
              ],
            "feature_id":"break_of_structure_up",
            "feature_index":35,
            "flat_feature_index":35,
            "has_nans":false,
            "nan_value_treatment":"AsIs"
          },
          {
            "borders":
              [
              ],
            "feature_id":"break_of_structure_down",
            "feature_index":36,
            "flat_feature_index":36,
            "has_nans":false,
            "nan_value_treatment":"AsIs"
          },
          {
            "borders":
              [
              ],
            "feature_id":"change_of_character_up",
            "feature_index":37,
            "flat_feature_index":37,
            "has_nans":false,
            "nan_value_treatment":"AsIs"
          },
          {
            "borders":
              [
              ],
            "feature_id":"change_of_character_down",
            "feature_index":38,
            "flat_feature_index":38,
            "has_nans":false,
            "nan_value_treatment":"AsIs"
          },
          {
            "borders":
              [
              ],
            "feature_id":"close_above_last_fractal_high",
            "feature_index":39,
            "flat_feature_index":39,
            "has_nans":false,
            "nan_value_treatment":"AsIs"
          },
          {
            "borders":
              [
              ],
            "feature_id":"close_below_last_fractal_low",
            "feature_index":40,
            "flat_feature_index":40,
            "has_nans":false,
            "nan_value_treatment":"AsIs"
          },
          {
            "borders":
              [
              ],
            "feature_id":"wick_above_last_fractal_high",
            "feature_index":41,
            "flat_feature_index":41,
            "has_nans":false,
            "nan_value_treatment":"AsIs"
          },
          {
            "borders":
              [
                0.5
              ],
            "feature_id":"wick_below_last_fractal_low",
            "feature_index":42,
            "flat_feature_index":42,
            "has_nans":false,
            "nan_value_treatment":"AsIs"
          },
          {
            "borders":
              [
                0.5
              ],
            "feature_id":"sweep_high_reversal",
            "feature_index":43,
            "flat_feature_index":43,
            "has_nans":false,
            "nan_value_treatment":"AsIs"
          },
          {
            "borders":
              [
                0.5
              ],
            "feature_id":"sweep_low_reversal",
            "feature_index":44,
            "flat_feature_index":44,
            "has_nans":false,
            "nan_value_treatment":"AsIs"
          },
          {
            "borders":
              [
                0.042579852044582367,
                0.090884864330291748,
                0.10724374651908875,
                0.15394328534603119,
                0.23286926746368408,
                0.37823301553726196,
                0.38451015949249268,
                0.52948737144470215,
                0.89468955993652344,
                0.94726145267486572
              ],
            "feature_id":"range_position_between_fractals",
            "feature_index":45,
            "flat_feature_index":45,
            "has_nans":false,
            "nan_value_treatment":"AsIs"
          },
          {
            "borders":
              [
                0.025489071384072304,
                0.039272155612707138,
                0.11337529867887497,
                0.11691524088382721,
                0.14185729622840881,
                0.16321486234664917,
                0.16840836405754089,
                0.17096637189388275,
                0.17544558644294739,
                0.19431805610656738,
                0.25357457995414734,
                0.26677390933036804,
                0.26925408840179443,
                0.27665585279464722,
                0.2847120463848114,
                0.28722766041755676,
                0.3032105565071106,
                0.30612844228744507,
                0.30876559019088745,
                0.31994011998176575,
                0.32304555177688599,
                0.341839998960495,
                0.38319921493530273,
                0.45613765716552734,
                0.50929379463195801,
                0.58777546882629395,
                0.59852361679077148,
                0.60957241058349609,
                0.62760818004608154,
                0.65953093767166138,
                0.72318464517593384,
                0.82706034183502197,
                0.98004692792892456,
                3.6372170448303223
              ],
            "feature_id":"fractal_range_pct",
            "feature_index":46,
            "flat_feature_index":46,
            "has_nans":false,
            "nan_value_treatment":"AsIs"
          },
          {
            "borders":
              [
                0.5
              ],
            "feature_id":"compression_near_fractal_range",
            "feature_index":47,
            "flat_feature_index":47,
            "has_nans":false,
            "nan_value_treatment":"AsIs"
          },
          {
            "borders":
              [
                6.5,
                8.5,
                14.5,
                15.5,
                17.5,
                24.5,
                34.5,
                42.5,
                44.5,
                45.5,
                46.5,
                48.5,
                52.5,
                53.5,
                55.5,
                58.5,
                59.5,
                62.5,
                64.5
              ],
            "feature_id":"bars_since_fractal_high",
            "feature_index":48,
            "flat_feature_index":48,
            "has_nans":false,
            "nan_value_treatment":"AsIs"
          },
          {
            "borders":
              [
                0.5,
                2.5,
                4.5,
                11.5,
                19.5,
                21.5,
                22.5,
                24.5,
                25.5,
                27.5,
                28.5,
                29.5,
                33.5,
                51.5,
                93,
                96,
                97.5
              ],
            "feature_id":"bars_since_fractal_low",
            "feature_index":49,
            "flat_feature_index":49,
            "has_nans":false,
            "nan_value_treatment":"AsIs"
          },
          {
            "borders":
              [
                -0.35813438892364502,
                -0.29527798295021057,
                -0.26910951733589172,
                -0.24686066806316376,
                -0.22660887241363525,
                -0.15191590785980225,
                -0.12867254018783569,
                -0.11892534792423248,
                0.11715768277645111,
                0.15187492966651917,
                0.31877401471138,
                0.33100366592407227,
                0.51346313953399658,
                0.60119271278381348,
                0.89415371417999268,
                1.5045030117034912,
                1.6771752834320068,
                1.9204087257385254,
                2.0710048675537109,
                2.527763843536377
              ],
            "feature_id":"distance_to_last_fractal_high_pct",
            "feature_index":50,
            "flat_feature_index":50,
            "has_nans":false,
            "nan_value_treatment":"AsIs"
          },
          {
            "borders":
              [
                -3.5155906677246094,
                -2.8270847797393799,
                -2.1733644008636475,
                -1.9819228649139404,
                -0.57681572437286377,
                -0.54174411296844482,
                -0.4888724684715271,
                -0.47543466091156006,
                -0.44459500908851624,
                -0.43221795558929443,
                -0.42148482799530029,
                -0.39039146900177002,
                -0.38076537847518921,
                -0.36256679892539978,
                -0.34569808840751648,
                -0.314188152551651,
                -0.30652165412902832,
                -0.30296584963798523,
                -0.29942101240158081,
                -0.27219629287719727,
                -0.25041249394416809,
                -0.24738496541976929,
                -0.22716926038265228,
                -0.22451084852218628,
                -0.12376601994037628,
                -0.11779193580150604,
                -0.10165368765592575,
                0.34303215146064758
              ],
            "feature_id":"distance_to_last_fractal_low_pct",
            "feature_index":51,
            "flat_feature_index":51,
            "has_nans":false,
            "nan_value_treatment":"AsIs"
          }
        ]
    },
  "model_info":
    {
      "catboost_version_info":"Git info:\n    Commit: b1bd2a6d77219e82a1acfcedfccb8e6f6c1ee084\n    Branch: tags/v1.2.10\n    Author: akhropov <akhropov@yandex-team.com>\n    Summary: CatBoost release 1.2.10. commit_hash:f8e0038b19555d36a9ba7b81b6730254b352960d\n    git-svn info:\n    Last Changed Rev: 9293085\n\nOther info:\n    Build by: runneradmin\n    Top src dir: D:/a/catboost/catboost/catboost\n",
      "class_params":
        {
          "class_label_type":"Integer",
          "class_names":
            [
              0,
              1
            ],
          "class_to_label":
            [
              0,
              1
            ],
          "classes_count":0
        },
      "model_guid":"fb12476f-d47b106c-3065097e-7313eeff",
      "output_options":"{\"name\":\"experiment\",\"verbose\":0,\"test_error_log\":\"test_error.tsv\",\"json_log\":\"catboost_training.json\",\"result_model_file\":\"model\",\"roc_file\":\"\",\"eval_file_name\":\"\",\"use_best_model\":true,\"allow_writing_files\":true,\"prediction_type\":[\"RawFormulaVal\"],\"fstr_internal_file\":\"\",\"output_columns\":[\"SampleId\",\"RawFormulaVal\",\"Label\"],\"snapshot_interval\":600,\"time_left_log\":\"time_left.tsv\",\"fstr_type\":\"FeatureImportance\",\"profile_log\":\"catboost_profile.log\",\"train_dir\":\"catboost_info\",\"learn_error_log\":\"learn_error.tsv\",\"training_options_file\":\"\",\"snapshot_file\":\"experiment.cbsnapshot\",\"save_snapshot\":false,\"model_format\":[\"CatboostBinary\"],\"final_feature_calcer_computation_mode\":\"Default\",\"metric_period\":1,\"output_borders\":\"\",\"final_ctr_computation_mode\":\"Default\",\"best_model_min_trees\":1,\"fstr_regular_file\":\"\"}",
      "params":
        {
          "boosting_options":
            {
              "approx_on_full_history":false,
              "boost_from_average":false,
              "boosting_type":"Plain",
              "fold_len_multiplier":2,
              "fold_permutation_block":0,
              "iterations":300,
              "learning_rate":0.050000000750000002,
              "model_shrink_mode":"Constant",
              "model_shrink_rate":0,
              "od_config":
                {
                  "stop_pvalue":0,
                  "type":"None",
                  "wait_iterations":20
                },
              "permutation_count":4,
              "posterior_sampling":false
            },
          "cat_feature_params":
            {
              "combinations_ctrs":
                [
                  {
                    "ctr_binarization":
                      {
                        "border_count":15,
                        "border_type":"Uniform"
                      },
                    "ctr_type":"Borders",
                    "prior_estimation":"No",
                    "priors":
                      [
                        [
                          0,
                          1
                        ],
                        [
                          0.5,
                          1
                        ],
                        [
                          1,
                          1
                        ]
                      ],
                    "target_binarization":
                      {
                        "border_count":1,
                        "border_type":"MinEntropy"
                      }
                  },
                  {
                    "ctr_binarization":
                      {
                        "border_count":15,
                        "border_type":"Uniform"
                      },
                    "ctr_type":"Counter",
                    "prior_estimation":"No",
                    "priors":
                      [
                        [
                          0,
                          1
                        ]
                      ]
                  }
                ],
              "counter_calc_method":"SkipTest",
              "ctr_leaf_count_limit":18446744073709551615,
              "max_ctr_complexity":4,
              "one_hot_max_size":2,
              "per_feature_ctrs":
                {
                },
              "simple_ctrs":
                [
                  {
                    "ctr_binarization":
                      {
                        "border_count":15,
                        "border_type":"Uniform"
                      },
                    "ctr_type":"Borders",
                    "prior_estimation":"No",
                    "priors":
                      [
                        [
                          0,
                          1
                        ],
                        [
                          0.5,
                          1
                        ],
                        [
                          1,
                          1
                        ]
                      ],
                    "target_binarization":
                      {
                        "border_count":1,
                        "border_type":"MinEntropy"
                      }
                  },
                  {
                    "ctr_binarization":
                      {
                        "border_count":15,
                        "border_type":"Uniform"
                      },
                    "ctr_type":"Counter",
                    "prior_estimation":"No",
                    "priors":
                      [
                        [
                          0,
                          1
                        ]
                      ]
                  }
                ],
              "store_all_simple_ctr":false,
              "target_binarization":
                {
                  "border_count":1,
                  "border_type":"MinEntropy"
                }
            },
          "data_processing_options":
            {
              "allow_const_label":false,
              "auto_class_weights":"None",
              "class_names":
                [
                  0,
                  1
                ],
              "class_weights":
                [
                  1,
                  1.4471611980000001
                ],
              "classes_count":0,
              "dev_default_value_fraction_for_sparse":0.82999998330000002,
              "dev_group_features":false,
              "dev_leafwise_scoring":false,
              "dev_sparse_array_indexing":"Indices",
              "embedding_processing_options":
                {
                  "embedding_processing":
                    {
                      "default":
                        [
                          "LDA",
                          "KNN"
                        ]
                    }
                },
              "eval_fraction":0,
              "float_features_binarization":
                {
                  "border_count":254,
                  "border_type":"GreedyLogSum",
                  "dev_max_subset_size_for_build_borders":200000,
                  "nan_mode":"Min"
                },
              "force_unit_auto_pair_weights":false,
              "has_time":false,
              "ignored_features":
                [
                ],
              "per_float_feature_quantization":
                {
                },
              "target_border":null,
              "text_processing_options":
                {
                  "dictionaries":
                    [
                      {
                        "dictionary_id":"BiGram",
                        "end_of_sentence_token_policy":"Skip",
                        "end_of_word_token_policy":"Insert",
                        "gram_order":"2",
                        "max_dictionary_size":"50000",
                        "occurrence_lower_bound":"5",
                        "skip_step":"0",
                        "start_token_id":"0",
                        "token_level_type":"Word"
                      },
                      {
                        "dictionary_id":"Word",
                        "end_of_sentence_token_policy":"Skip",
                        "end_of_word_token_policy":"Insert",
                        "gram_order":"1",
                        "max_dictionary_size":"50000",
                        "occurrence_lower_bound":"5",
                        "skip_step":"0",
                        "start_token_id":"0",
                        "token_level_type":"Word"
                      }
                    ],
                  "feature_processing":
                    {
                      "default":
                        [
                          {
                            "dictionaries_names":
                              [
                                "BiGram",
                                "Word"
                              ],
                            "feature_calcers":
                              [
                                "BoW"
                              ],
                            "tokenizers_names":
                              [
                                "Space"
                              ]
                          },
                          {
                            "dictionaries_names":
                              [
                                "Word"
                              ],
                            "feature_calcers":
                              [
                                "NaiveBayes"
                              ],
                            "tokenizers_names":
                              [
                                "Space"
                              ]
                          }
                        ]
                    },
                  "tokenizers":
                    [
                      {
                        "delimiter":" ",
                        "languages":
                          [
                          ],
                        "lemmatizing":"0",
                        "lowercasing":"0",
                        "number_process_policy":"LeaveAsIs",
                        "number_token":"🔢",
                        "separator_type":"ByDelimiter",
                        "skip_empty":"1",
                        "split_by_set":"0",
                        "subtokens_policy":"SingleToken",
                        "token_types":
                          [
                            "Number",
                            "Unknown",
                            "Word"
                          ],
                        "tokenizer_id":"Space"
                      }
                    ]
                }
            },
          "detailed_profile":false,
          "flat_params":
            {
              "class_weights":
                [
                  1,
                  1.4471612170000001
                ],
              "depth":5,
              "eval_metric":"AUC",
              "iterations":300,
              "learning_rate":0.050000000000000003,
              "loss_function":"Logloss",
              "random_seed":42,
              "use_best_model":true,
              "verbose":0
            },
          "logging_level":"Silent",
          "loss_function":
            {
              "params":
                {
                },
              "type":"Logloss"
            },
          "metadata":
            {
            },
          "metrics":
            {
              "custom_metrics":
                [
                ],
              "eval_metric":
                {
                  "params":
                    {
                    },
                  "type":"AUC"
                },
              "objective_metric":
                {
                  "params":
                    {
                    },
                  "type":"Logloss"
                }
            },
          "pool_metainfo_options":
            {
              "tags":
                {
                }
            },
          "random_seed":42,
          "system_options":
            {
              "file_with_hosts":"hosts.txt",
              "node_port":0,
              "node_type":"SingleHost",
              "thread_count":8,
              "used_ram_limit":""
            },
          "task_type":"CPU",
          "tree_learner_options":
            {
              "bayesian_matrix_reg":0.1000000015,
              "bootstrap":
                {
                  "mvs_reg":null,
                  "subsample":0.80000001190000003,
                  "type":"MVS"
                },
              "depth":5,
              "dev_efb_max_buckets":1024,
              "dev_leafwise_approxes":false,
              "dev_score_calc_obj_block_size":5000000,
              "grow_policy":"SymmetricTree",
              "l2_leaf_reg":3,
              "leaf_estimation_backtracking":"AnyImprovement",
              "leaf_estimation_iterations":10,
              "leaf_estimation_method":"Newton",
              "max_leaves":32,
              "min_data_in_leaf":1,
              "model_size_reg":0.5,
              "monotone_constraints":
                {
                },
              "penalties":
                {
                  "feature_weights":
                    {
                    },
                  "first_feature_use_penalties":
                    {
                    },
                  "penalties_coefficient":1,
                  "per_object_feature_penalties":
                    {
                    }
                },
              "random_score_type":"NormalWithModelSizeDecrease",
              "random_strength":1,
              "rsm":1,
              "sampling_frequency":"PerTree",
              "score_function":"Cosine",
              "sparse_features_conflict_fraction":0
            }
        },
      "train_finish_time":"2026-05-28T15:44:41Z",
      "training":"{\"metrics\":{\"best_iteration\":259,\"learn_best_error\":{\"Logloss\":0.6379151865888513},\"test_metrics_history\":[[{\"Logloss\":0.6867476063796365,\"AUC\":0.6560079081458066}],[{\"Logloss\":0.6807704296837214,\"AUC\":0.6643371435974978}],[{\"Logloss\":0.6749898794276846,\"AUC\":0.6698858830019302}],[{\"Logloss\":0.6698341414107523,\"AUC\":0.6705893019591815}],[{\"Logloss\":0.6651214155008514,\"AUC\":0.6719726608110502}],[{\"Logloss\":0.6609297610400304,\"AUC\":0.6719343384322511}],[{\"Logloss\":0.6570583824903465,\"AUC\":0.6721583129684043}],[{\"Logloss\":0.6536700890981059,\"AUC\":0.6721142581352024}],[{\"Logloss\":0.6502247327896045,\"AUC\":0.6765801975523325}],[{\"Logloss\":0.6472397002462837,\"AUC\":0.6764869550749787}],[{\"Logloss\":0.6446689558383978,\"AUC\":0.6764956121062211}],[{\"Logloss\":0.6422693432201264,\"AUC\":0.6766192602498129}],[{\"Logloss\":0.6403274845079417,\"AUC\":0.6767148398931822}],[{\"Logloss\":0.6384619622860498,\"AUC\":0.6766974492544425}],[{\"Logloss\":0.6366341717827649,\"AUC\":0.6775179205219581}],[{\"Logloss\":0.6349178938523463,\"AUC\":0.6784146913422937}],[{\"Logloss\":0.6335601182172184,\"AUC\":0.6783807191308684}],[{\"Logloss\":0.6318405610729951,\"AUC\":0.6788289727956264}],[{\"Logloss\":0.6301562187522407,\"AUC\":0.6802695443852972}],[{\"Logloss\":0.6290365350249134,\"AUC\":0.6803523546323498}],[{\"Logloss\":0.6276429604918525,\"AUC\":0.6818151866701958}],[{\"Logloss\":0.6264593914012028,\"AUC\":0.6817805120612377}],[{\"Logloss\":0.6255511869587042,\"AUC\":0.6819356739025639}],[{\"Logloss\":0.6247618549881464,\"AUC\":0.6820374454578653}],[{\"Logloss\":0.6239869353755264,\"AUC\":0.6820801972714713}],[{\"Logloss\":0.6232202771869628,\"AUC\":0.6820068829693288}],[{\"Logloss\":0.6225406243382833,\"AUC\":0.6820547717529786}],[{\"Logloss\":0.6217654684349598,\"AUC\":0.6823470505959153}],[{\"Logloss\":0.621122143250386,\"AUC\":0.682416216813708}],[{\"Logloss\":0.620433306346054,\"AUC\":0.6833136555355638}],[{\"Logloss\":0.6198350193375138,\"AUC\":0.6835188796539851}],[{\"Logloss\":0.6192537075288246,\"AUC\":0.6835595328378328}],[{\"Logloss\":0.6187505611379762,\"AUC\":0.6838068256998805}],[{\"Logloss\":0.6181460162855458,\"AUC\":0.6838607997269411}],[{\"Logloss\":0.6177491353507211,\"AUC\":0.6838084541073963}],[{\"Logloss\":0.6171107256845352,\"AUC\":0.6841726148116695}],[{\"Logloss\":0.6167462516012774,\"AUC\":0.6842741622652152}],[{\"Logloss\":0.6164302822444291,\"AUC\":0.6842818942650848}],[{\"Logloss\":0.6161165166207263,\"AUC\":0.6842955850229857}],[{\"Logloss\":0.6156333189419868,\"AUC\":0.6845161366250112}],[{\"Logloss\":0.6152504640214711,\"AUC\":0.6844104242060882}],[{\"Logloss\":0.6148879155231675,\"AUC\":0.6842851466763702}],[{\"Logloss\":0.6145264587992828,\"AUC\":0.6845679298190495}],[{\"Logloss\":0.6143393107491437,\"AUC\":0.6844811943661397}],[{\"Logloss\":0.6141175823640015,\"AUC\":0.6845255183171703}],[{\"Logloss\":0.6137318462874705,\"AUC\":0.6846338969598174}],[{\"Logloss\":0.6135688157272334,\"AUC\":0.6846574036681918}],[{\"Logloss\":0.6134434010260207,\"AUC\":0.6846735796069141}],[{\"Logloss\":0.6132293987847846,\"AUC\":0.684863573368802}],[{\"Logloss\":0.6130313669586788,\"AUC\":0.6848893020118307}],[{\"Logloss\":0.612729215809051,\"AUC\":0.6848857273931086}],[{\"Logloss\":0.6126241212732786,\"AUC\":0.6848424960604624}],[{\"Logloss\":0.6123590073374037,\"AUC\":0.6850665669897289}],[{\"Logloss\":0.6122040073300105,\"AUC\":0.6850919734253209}],[{\"Logloss\":0.6120380612591768,\"AUC\":0.6850567918962347}],[{\"Logloss\":0.6117626997822369,\"AUC\":0.6851314317260095}],[{\"Logloss\":0.6116190514191846,\"AUC\":0.6852118524513964}],[{\"Logloss\":0.6115280530945375,\"AUC\":0.685140852073275}],[{\"Logloss\":0.6113787286037987,\"AUC\":0.6851888352928175}],[{\"Logloss\":0.6112308350495933,\"AUC\":0.6853454763035909}],[{\"Logloss\":0.6111502318519018,\"AUC\":0.6853685991520808}],[{\"Logloss\":0.6109219185577951,\"AUC\":0.6854392956717084}],[{\"Logloss\":0.6108501506263656,\"AUC\":0.6854019455422282}],[{\"Logloss\":0.6107686178076456,\"AUC\":0.6853830204425602}],[{\"Logloss\":0.6106214611840555,\"AUC\":0.6855066338454869}],[{\"Logloss\":0.6105699304343881,\"AUC\":0.6855196926657956}],[{\"Logloss\":0.6105189224837664,\"AUC\":0.6855262422597872}],[{\"Logloss\":0.6103789061551826,\"AUC\":0.6855877060806715}],[{\"Logloss\":0.6102076584672538,\"AUC\":0.6857057073982606}],[{\"Logloss\":0.6101664292433682,\"AUC\":0.6857390992937864}],[{\"Logloss\":0.6100688439603749,\"AUC\":0.6857764917481614}],[{\"Logloss\":0.6099197735409662,\"AUC\":0.685950059536399}],[{\"Logloss\":0.6098841164827008,\"AUC\":0.6859441166807848}],[{\"Logloss\":0.6098051384363522,\"AUC\":0.6859246555473326}],[{\"Logloss\":0.6097739556701044,\"AUC\":0.6859465754391283}],[{\"Logloss\":0.609737140674812,\"AUC\":0.6859386332826998}],[{\"Logloss\":0.6096434823536585,\"AUC\":0.6860446145747988}],[{\"Logloss\":0.6095935908706945,\"AUC\":0.6860572807277303}],[{\"Logloss\":0.6095086005136672,\"AUC\":0.6861345745486007}],[{\"Logloss\":0.6094795359873115,\"AUC\":0.6861337943515503}],[{\"Logloss\":0.6094351053643741,\"AUC\":0.6861905921585911}],[{\"Logloss\":0.6094128942779764,\"AUC\":0.6862048223754122}],[{\"Logloss\":0.6094003579030295,\"AUC\":0.6861566204364709}],[{\"Logloss\":0.6093660503733407,\"AUC\":0.686180740488842}],[{\"Logloss\":0.6093348890763955,\"AUC\":0.6861870747885708}],[{\"Logloss\":0.6092114574849296,\"AUC\":0.6863183866739646}],[{\"Logloss\":0.6091583322462,\"AUC\":0.686322706259767}],[{\"Logloss\":0.6091206229401755,\"AUC\":0.6863033574218451}],[{\"Logloss\":0.6090626439894236,\"AUC\":0.6863662316648041}],[{\"Logloss\":0.608971850109127,\"AUC\":0.6864314709641719}],[{\"Logloss\":0.6089438922104098,\"AUC\":0.6864239708949401}],[{\"Logloss\":0.6089259000289692,\"AUC\":0.6864213477300685}],[{\"Logloss\":0.6089205545482657,\"AUC\":0.6863790693191882}],[{\"Logloss\":0.6089035536470313,\"AUC\":0.6863569353563925}],[{\"Logloss\":0.6088274687402709,\"AUC\":0.6863600466031441}],[{\"Logloss\":0.6088042440989455,\"AUC\":0.6863793406388901}],[{\"Logloss\":0.6087650479333354,\"AUC\":0.6864224063417455}],[{\"Logloss\":0.6087164310781262,\"AUC\":0.6864533524455139}],[{\"Logloss\":0.6086827771088399,\"AUC\":0.6864306286253683}],[{\"Logloss\":0.6086359395017353,\"AUC\":0.6864623938259462}],[{\"Logloss\":0.6085856598815441,\"AUC\":0.6865553366038998}],[{\"Logloss\":0.6085882943035571,\"AUC\":0.6864726851363661}],[{\"Logloss\":0.6085617276438477,\"AUC\":0.6864820132496121}],[{\"Logloss\":0.6085357898487981,\"AUC\":0.6864786125788683}],[{\"Logloss\":0.6084826459360764,\"AUC\":0.6865027920818144}],[{\"Logloss\":0.6085023017026592,\"AUC\":0.6864494610017118}],[{\"Logloss\":0.6084441914849158,\"AUC\":0.6864840475357441}],[{\"Logloss\":0.6083597148661406,\"AUC\":0.6865769616893469}],[{\"Logloss\":0.6083477440750503,\"AUC\":0.6865988943030764}],[{\"Logloss\":0.6083402926849433,\"AUC\":0.6865844710553763}],[{\"Logloss\":0.6083108029071161,\"AUC\":0.6866429153742234}],[{\"Logloss\":0.6082733659036175,\"AUC\":0.6867123609852528}],[{\"Logloss\":0.6082691372068256,\"AUC\":0.6867282976537601}],[{\"Logloss\":0.6082437428068045,\"AUC\":0.686748479533688}],[{\"Logloss\":0.6082193389350945,\"AUC\":0.6868142186582593}],[{\"Logloss\":0.6081860686558278,\"AUC\":0.6868888944519622}],[{\"Logloss\":0.6081797172617616,\"AUC\":0.6868662293484336}],[{\"Logloss\":0.6081237465312156,\"AUC\":0.6869115595554907}],[{\"Logloss\":0.6080999121272712,\"AUC\":0.6869366883104142}],[{\"Logloss\":0.6080449377015533,\"AUC\":0.6869862813438771}],[{\"Logloss\":0.60801287289367,\"AUC\":0.6869944669296142}],[{\"Logloss\":0.607984476352767,\"AUC\":0.6870053813701338}],[{\"Logloss\":0.6079813881128161,\"AUC\":0.6870109261760141}],[{\"Logloss\":0.6079484647528188,\"AUC\":0.6870707045853335}],[{\"Logloss\":0.6079027933793731,\"AUC\":0.6871427660216574}],[{\"Logloss\":0.6078970727045877,\"AUC\":0.6871477258632392}],[{\"Logloss\":0.6078992043797083,\"AUC\":0.6871300741802059}],[{\"Logloss\":0.6078728971088964,\"AUC\":0.6871894518486131}],[{\"Logloss\":0.607848895612531,\"AUC\":0.6872259447154827}],[{\"Logloss\":0.6078012000392632,\"AUC\":0.687264346361715}],[{\"Logloss\":0.6077560043205287,\"AUC\":0.6873270625591128}],[{\"Logloss\":0.6077252669708995,\"AUC\":0.6873612390554353}],[{\"Logloss\":0.6077060709242768,\"AUC\":0.6873794436532804}],[{\"Logloss\":0.6076968347460843,\"AUC\":0.6873657108151372}],[{\"Logloss\":0.6076984089256647,\"AUC\":0.6873538197215523}],[{\"Logloss\":0.6076919915327681,\"AUC\":0.6873378365690563}],[{\"Logloss\":0.607683954903281,\"AUC\":0.6873327521993156}],[{\"Logloss\":0.6076658020960896,\"AUC\":0.6873476921532465}],[{\"Logloss\":0.6076446845361277,\"AUC\":0.6873755370410188}],[{\"Logloss\":0.6076328503834304,\"AUC\":0.6874023646633988}],[{\"Logloss\":0.607627969116232,\"AUC\":0.6874110420008046}],[{\"Logloss\":0.6076231235388192,\"AUC\":0.6874125515071707}],[{\"Logloss\":0.6076039347973892,\"AUC\":0.6874392245091255}],[{\"Logloss\":0.6076092838270568,\"AUC\":0.6874245008280677}],[{\"Logloss\":0.6076191786242252,\"AUC\":0.6874111516051566}],[{\"Logloss\":0.6076065674468009,\"AUC\":0.6874145933775324}],[{\"Logloss\":0.6076087274656135,\"AUC\":0.6874055828233242}],[{\"Logloss\":0.6076083877489298,\"AUC\":0.6874110977815908}],[{\"Logloss\":0.6075847356126717,\"AUC\":0.687419752121655}],[{\"Logloss\":0.607590319191017,\"AUC\":0.6874105624817645}],[{\"Logloss\":0.6075885098843434,\"AUC\":0.6874159399452859}],[{\"Logloss\":0.6075339866907529,\"AUC\":0.687456438264056}],[{\"Logloss\":0.6075305583316882,\"AUC\":0.6874627547041469}],[{\"Logloss\":0.6074804017640303,\"AUC\":0.6874788220171273}],[{\"Logloss\":0.6074771454784209,\"AUC\":0.687479953290618}],[{\"Logloss\":0.6074622134752992,\"AUC\":0.6874968930346683}],[{\"Logloss\":0.607467786972663,\"AUC\":0.6874354881750536}],[{\"Logloss\":0.6074720894999849,\"AUC\":0.6874184711207907}],[{\"Logloss\":0.6074852137460802,\"AUC\":0.6873895238285312}],[{\"Logloss\":0.6074618836039241,\"AUC\":0.6874120406726014}],[{\"Logloss\":0.6074352105074742,\"AUC\":0.6874506458697732}],[{\"Logloss\":0.6074117943426676,\"AUC\":0.6874910600280586}],[{\"Logloss\":0.6073813729492211,\"AUC\":0.6875373634630452}],[{\"Logloss\":0.6073829190613029,\"AUC\":0.6875239824352998}],[{\"Logloss\":0.6073770957685776,\"AUC\":0.6875037643467914}],[{\"Logloss\":0.6073467861178435,\"AUC\":0.6875247144357937}],[{\"Logloss\":0.6073331632973881,\"AUC\":0.6875337465194282}],[{\"Logloss\":0.6073206367927598,\"AUC\":0.6875132152756283}],[{\"Logloss\":0.607321630521711,\"AUC\":0.6875126129409972}],[{\"Logloss\":0.6073174628272968,\"AUC\":0.6875133018826385}],[{\"Logloss\":0.6072955767220352,\"AUC\":0.6875399161679762}],[{\"Logloss\":0.6072824775957169,\"AUC\":0.6875681417351497}],[{\"Logloss\":0.6072814188667885,\"AUC\":0.6875619892122817}],[{\"Logloss\":0.6072430034425368,\"AUC\":0.6875716153123598}],[{\"Logloss\":0.607251817194482,\"AUC\":0.6875654211985547}],[{\"Logloss\":0.6072466837062751,\"AUC\":0.6875705192688395}],[{\"Logloss\":0.6072467103966133,\"AUC\":0.6875728312356402}],[{\"Logloss\":0.6072346394795064,\"AUC\":0.6875570545699146}],[{\"Logloss\":0.6072189496475249,\"AUC\":0.6875770818294173}],[{\"Logloss\":0.6071974302201303,\"AUC\":0.6875582494530739}],[{\"Logloss\":0.607195196526681,\"AUC\":0.6875604792166103}],[{\"Logloss\":0.6071573667771953,\"AUC\":0.6876052824420285}],[{\"Logloss\":0.6071443621804032,\"AUC\":0.6875975602282618}],[{\"Logloss\":0.6071413875426448,\"AUC\":0.6875869501355412}],[{\"Logloss\":0.6071439396124648,\"AUC\":0.6875707560925286}],[{\"Logloss\":0.6071570522293959,\"AUC\":0.6875145642899074}],[{\"Logloss\":0.6071528728489257,\"AUC\":0.6875111093062928}],[{\"Logloss\":0.6071286783200721,\"AUC\":0.687561624190645}],[{\"Logloss\":0.6071221967149987,\"AUC\":0.6875698650678632}],[{\"Logloss\":0.6070983644460007,\"AUC\":0.6875684769091726}],[{\"Logloss\":0.6070944386705011,\"AUC\":0.6875759525131473}],[{\"Logloss\":0.607084897910462,\"AUC\":0.687606755739814}],[{\"Logloss\":0.6070781233497642,\"AUC\":0.6876082114226145}],[{\"Logloss\":0.6070769665588602,\"AUC\":0.6876085813373025}],[{\"Logloss\":0.6070796906716008,\"AUC\":0.687595538908716}],[{\"Logloss\":0.6070564805989747,\"AUC\":0.6876225436595578}],[{\"Logloss\":0.6070552695277699,\"AUC\":0.6876194532082747}],[{\"Logloss\":0.6070565193445624,\"AUC\":0.6876238432540176}],[{\"Logloss\":0.6070694882217416,\"AUC\":0.6875938620599911}],[{\"Logloss\":0.6070640539359328,\"AUC\":0.6876029078441696}],[{\"Logloss\":0.6070446274580573,\"AUC\":0.6875745746298646}],[{\"Logloss\":0.6070333584123273,\"AUC\":0.6876013405997965}],[{\"Logloss\":0.6070279375358328,\"AUC\":0.6876033198391}],[{\"Logloss\":0.6070222906378439,\"AUC\":0.687602748819998}],[{\"Logloss\":0.6070179096257536,\"AUC\":0.6876072024754096}],[{\"Logloss\":0.6070029588069318,\"AUC\":0.6876429300690354}],[{\"Logloss\":0.607004783071197,\"AUC\":0.6876415849691974}],[{\"Logloss\":0.6069910969176479,\"AUC\":0.6876572598594531}],[{\"Logloss\":0.6069858258857227,\"AUC\":0.687681791172797}],[{\"Logloss\":0.6069821087261934,\"AUC\":0.6876989168528018}],[{\"Logloss\":0.6069601293106468,\"AUC\":0.6877023277989536}],[{\"Logloss\":0.6069587072882322,\"AUC\":0.6877107272110381}],[{\"Logloss\":0.6069527266251117,\"AUC\":0.6877195523185972}],[{\"Logloss\":0.6069548588088775,\"AUC\":0.6876882270033429}],[{\"Logloss\":0.6069499431046781,\"AUC\":0.6876909813019927}],[{\"Logloss\":0.6069145822308898,\"AUC\":0.6877095401567612}],[{\"Logloss\":0.6068973423392061,\"AUC\":0.6877097950847408}],[{\"Logloss\":0.6068924674680283,\"AUC\":0.6876940658816142}],[{\"Logloss\":0.6068723888111006,\"AUC\":0.6877119705354064}],[{\"Logloss\":0.6069057280578701,\"AUC\":0.6876081438985047}],[{\"Logloss\":0.6069084689056375,\"AUC\":0.6876110033977604}],[{\"Logloss\":0.6069123515037836,\"AUC\":0.6875952795769903}],[{\"Logloss\":0.6068654359459198,\"AUC\":0.687637877504129}],[{\"Logloss\":0.6068689674734822,\"AUC\":0.6876272542001693}],[{\"Logloss\":0.6068498693574212,\"AUC\":0.6876682550353213}],[{\"Logloss\":0.6068490141013495,\"AUC\":0.6876811883488609}],[{\"Logloss\":0.6068235979017679,\"AUC\":0.6877109855641537}],[{\"Logloss\":0.60681485615984,\"AUC\":0.68773093991719}],[{\"Logloss\":0.6068069121811818,\"AUC\":0.6877356494791913}],[{\"Logloss\":0.6068192873699366,\"AUC\":0.6876742994217526}],[{\"Logloss\":0.6068019714047638,\"AUC\":0.6877071993209571}],[{\"Logloss\":0.6068045433768186,\"AUC\":0.6877019011248688}],[{\"Logloss\":0.606801080142319,\"AUC\":0.6877116510191481}],[{\"Logloss\":0.6067566213046351,\"AUC\":0.687733509258496}],[{\"Logloss\":0.6067377969051337,\"AUC\":0.6877669816447177}],[{\"Logloss\":0.6067300164784086,\"AUC\":0.6877635222573568}],[{\"Logloss\":0.6067418483478897,\"AUC\":0.6877462111307029}],[{\"Logloss\":0.6067461558197256,\"AUC\":0.6877429704627408}],[{\"Logloss\":0.6067694708893334,\"AUC\":0.6876974367047441}],[{\"Logloss\":0.6067671355825245,\"AUC\":0.6876933059907271}],[{\"Logloss\":0.6067628760746766,\"AUC\":0.6877014436245602}],[{\"Logloss\":0.6067618055234011,\"AUC\":0.6876980874805845}],[{\"Logloss\":0.6067398681144441,\"AUC\":0.6877166551428455}],[{\"Logloss\":0.6067346460152745,\"AUC\":0.6877143480690964}],[{\"Logloss\":0.606733269678232,\"AUC\":0.6877231335429388}],[{\"Logloss\":0.6067160897059358,\"AUC\":0.687744220148076}],[{\"Logloss\":0.6067228088537276,\"AUC\":0.6877236433988978}],[{\"Logloss\":0.6067189658550217,\"AUC\":0.6877299016116767}],[{\"Logloss\":0.6066696025304569,\"AUC\":0.6877725920174873}],[{\"Logloss\":0.6066518280257339,\"AUC\":0.6877939624196074}],[{\"Logloss\":0.6066634561369842,\"AUC\":0.6877797158110641}],[{\"Logloss\":0.606663417453436,\"AUC\":0.6877815311331446}],[{\"Logloss\":0.606644874198699,\"AUC\":0.6878038189824078}],[{\"Logloss\":0.6066487624170178,\"AUC\":0.6877924641672596}],[{\"Logloss\":0.6066463017175664,\"AUC\":0.6877976649916244}],[{\"Logloss\":0.6066546687212389,\"AUC\":0.6877878054929931}],[{\"Logloss\":0.6066460771469852,\"AUC\":0.6878089092238104}],[{\"Logloss\":0.6066284127248194,\"AUC\":0.6877755209980732}],[{\"Logloss\":0.606627139828432,\"AUC\":0.6877771425553171}],[{\"Logloss\":0.6065803311668934,\"AUC\":0.6878305409148769}],[{\"Logloss\":0.6065989206257154,\"AUC\":0.6877713897947509}],[{\"Logloss\":0.606599376778315,\"AUC\":0.6877818927296453}],[{\"Logloss\":0.6066087810246847,\"AUC\":0.6877618072428305}],[{\"Logloss\":0.606594894334707,\"AUC\":0.6877678056345785}],[{\"Logloss\":0.6066080535978399,\"AUC\":0.6877485597953892}],[{\"Logloss\":0.6066075201682732,\"AUC\":0.6877547622273817}],[{\"Logloss\":0.6066007493899115,\"AUC\":0.6877555093963351}],[{\"Logloss\":0.6065968120071547,\"AUC\":0.6877250770629667}],[{\"Logloss\":0.6065636178613075,\"AUC\":0.6877708990216924}],[{\"Logloss\":0.6065706349786799,\"AUC\":0.6877570203706167}],[{\"Logloss\":0.6065880464233901,\"AUC\":0.6877193663826429}],[{\"Logloss\":0.6065886827091019,\"AUC\":0.6876854193704323}],[{\"Logloss\":0.6065838128607078,\"AUC\":0.6876913923183128}],[{\"Logloss\":0.6065958447669588,\"AUC\":0.6876743943469504}],[{\"Logloss\":0.6065956872806053,\"AUC\":0.6876670909783862}],[{\"Logloss\":0.6065805063086205,\"AUC\":0.6877058620500014}],[{\"Logloss\":0.6065696207463072,\"AUC\":0.6877084357950536}],[{\"Logloss\":0.6065692021130936,\"AUC\":0.6876868564596372}],[{\"Logloss\":0.6065627488549159,\"AUC\":0.6877014323705419}],[{\"Logloss\":0.6065890556010279,\"AUC\":0.6876232874033752}],[{\"Logloss\":0.6065785575885262,\"AUC\":0.6876487997735308}],[{\"Logloss\":0.6065882578640643,\"AUC\":0.6876036941575343}],[{\"Logloss\":0.6065766223070804,\"AUC\":0.6876140498115806}],[{\"Logloss\":0.6065749496181969,\"AUC\":0.687618246581792}],[{\"Logloss\":0.6065676896818243,\"AUC\":0.6876372570652076}],[{\"Logloss\":0.6065631340266513,\"AUC\":0.6876456305441196}],[{\"Logloss\":0.6065650494398596,\"AUC\":0.6876443921128027}],[{\"Logloss\":0.6065505721993699,\"AUC\":0.687654385191738}],[{\"Logloss\":0.606550924176268,\"AUC\":0.6876552101602091}],[{\"Logloss\":0.6065504083631218,\"AUC\":0.6876489808164337}],[{\"Logloss\":0.6065267590398793,\"AUC\":0.6876848248646836}],[{\"Logloss\":0.606503051228141,\"AUC\":0.6877247971804249}],[{\"Logloss\":0.6065163092050165,\"AUC\":0.6877156554924384}],[{\"Logloss\":0.6065144847445618,\"AUC\":0.6877186270425718}],[{\"Logloss\":0.6065014097098963,\"AUC\":0.687725095167257}],[{\"Logloss\":0.6065267399384322,\"AUC\":0.6876532700653172}],[{\"Logloss\":0.6065361817068063,\"AUC\":0.6876360543531661}],[{\"Logloss\":0.606549314772617,\"AUC\":0.6875926255858947}],[{\"Logloss\":0.606523347935358,\"AUC\":0.6876182387529097}],[{\"Logloss\":0.6065199551420155,\"AUC\":0.6876326096449594}]],\"learn_metrics_history\":[{\"Logloss\":0.6890012164431522},{\"Logloss\":0.6850558919801009},{\"Logloss\":0.6815288852970617},{\"Logloss\":0.6782981746678969},{\"Logloss\":0.675358309845256},{\"Logloss\":0.6728089937832644},{\"Logloss\":0.6704573716814973},{\"Logloss\":0.6682599580114458},{\"Logloss\":0.6662953142510712},{\"Logloss\":0.6645103440239393},{\"Logloss\":0.6628492105580509},{\"Logloss\":0.6614068243389446},{\"Logloss\":0.6600868331024538},{\"Logloss\":0.6588524109068069},{\"Logloss\":0.6577772255107185},{\"Logloss\":0.6567633505865863},{\"Logloss\":0.6558360168295115},{\"Logloss\":0.6549104672377428},{\"Logloss\":0.6541064830944373},{\"Logloss\":0.653339586470201},{\"Logloss\":0.6526067471154197},{\"Logloss\":0.6519465460493375},{\"Logloss\":0.651360568760855},{\"Logloss\":0.6508524243398626},{\"Logloss\":0.6503674875593815},{\"Logloss\":0.6499356811733906},{\"Logloss\":0.6495156988957907},{\"Logloss\":0.64910858129626},{\"Logloss\":0.6487286084382536},{\"Logloss\":0.6483701089912024},{\"Logloss\":0.6480619526518041},{\"Logloss\":0.6477718324072673},{\"Logloss\":0.6475186560222884},{\"Logloss\":0.6472456519403645},{\"Logloss\":0.6469941229355355},{\"Logloss\":0.6467576869808102},{\"Logloss\":0.6465308218008992},{\"Logloss\":0.6463365930096456},{\"Logloss\":0.6461327121039072},{\"Logloss\":0.6459285224121718},{\"Logloss\":0.645758209533371},{\"Logloss\":0.6455525411358285},{\"Logloss\":0.6454173612341261},{\"Logloss\":0.6452650132193731},{\"Logloss\":0.6451147756398616},{\"Logloss\":0.6449430680992473},{\"Logloss\":0.6448327946745267},{\"Logloss\":0.6447045223664061},{\"Logloss\":0.644588136532029},{\"Logloss\":0.6444597177444634},{\"Logloss\":0.6443428558496622},{\"Logloss\":0.6442582363877882},{\"Logloss\":0.6441545450829812},{\"Logloss\":0.6440627972492685},{\"Logloss\":0.6439497729529854},{\"Logloss\":0.64383937372647},{\"Logloss\":0.6437593212310481},{\"Logloss\":0.6436960399090189},{\"Logloss\":0.6436278714223},{\"Logloss\":0.6435590930980691},{\"Logloss\":0.643499434461343},{\"Logloss\":0.6434233871419478},{\"Logloss\":0.643360233945959},{\"Logloss\":0.643294537394569},{\"Logloss\":0.6432436717081561},{\"Logloss\":0.6431882293276525},{\"Logloss\":0.6431361401443486},{\"Logloss\":0.6430777106984197},{\"Logloss\":0.6430133974173045},{\"Logloss\":0.6429610908823183},{\"Logloss\":0.6429108573359344},{\"Logloss\":0.6428538668313707},{\"Logloss\":0.642798446594843},{\"Logloss\":0.6427533898758676},{\"Logloss\":0.6427137120144528},{\"Logloss\":0.6426708788188787},{\"Logloss\":0.6426286557370419},{\"Logloss\":0.6425956120070846},{\"Logloss\":0.6425477557059514},{\"Logloss\":0.6425130062495726},{\"Logloss\":0.6424757571807148},{\"Logloss\":0.6424391339465447},{\"Logloss\":0.6423998211508072},{\"Logloss\":0.64236016930792},{\"Logloss\":0.6423280888107583},{\"Logloss\":0.6422967272160548},{\"Logloss\":0.6422666335041135},{\"Logloss\":0.6422366762373093},{\"Logloss\":0.6422023533794591},{\"Logloss\":0.6421644525167175},{\"Logloss\":0.6421348769956816},{\"Logloss\":0.6421066946864855},{\"Logloss\":0.6420713902021238},{\"Logloss\":0.6420444285891204},{\"Logloss\":0.6420005343413108},{\"Logloss\":0.6419683706770072},{\"Logloss\":0.6419379760054501},{\"Logloss\":0.6419082004558593},{\"Logloss\":0.6418831668808713},{\"Logloss\":0.6418557527731209},{\"Logloss\":0.6418244098947452},{\"Logloss\":0.6417855099387516},{\"Logloss\":0.641755707828015},{\"Logloss\":0.641729909509611},{\"Logloss\":0.6417064917808525},{\"Logloss\":0.6416707964155697},{\"Logloss\":0.6416494000517622},{\"Logloss\":0.6416111502548437},{\"Logloss\":0.6415887101702252},{\"Logloss\":0.6415610965091945},{\"Logloss\":0.6415354997608411},{\"Logloss\":0.6415072190156889},{\"Logloss\":0.6414847575913525},{\"Logloss\":0.6414598423172969},{\"Logloss\":0.6414351351980989},{\"Logloss\":0.6414074447612907},{\"Logloss\":0.6413879868402811},{\"Logloss\":0.6413566446758018},{\"Logloss\":0.6413284571999514},{\"Logloss\":0.6413061433410582},{\"Logloss\":0.6412865325923066},{\"Logloss\":0.6412648631497946},{\"Logloss\":0.6412370731629842},{\"Logloss\":0.6412126746707719},{\"Logloss\":0.6411844516462991},{\"Logloss\":0.641160476952848},{\"Logloss\":0.6411396990475499},{\"Logloss\":0.6411124348128492},{\"Logloss\":0.6410850475448159},{\"Logloss\":0.6410555331485889},{\"Logloss\":0.641023886415991},{\"Logloss\":0.6409989244003524},{\"Logloss\":0.6409760105831178},{\"Logloss\":0.6409524943409965},{\"Logloss\":0.6409382169851939},{\"Logloss\":0.6409076415230592},{\"Logloss\":0.6408874016926147},{\"Logloss\":0.6408709132562662},{\"Logloss\":0.6408504000267673},{\"Logloss\":0.640826970735433},{\"Logloss\":0.6408076514648325},{\"Logloss\":0.6407927742898126},{\"Logloss\":0.6407757736279059},{\"Logloss\":0.6407571138970088},{\"Logloss\":0.6407411463604054},{\"Logloss\":0.6407126246302752},{\"Logloss\":0.6406946920738524},{\"Logloss\":0.6406717216020162},{\"Logloss\":0.6406564967850071},{\"Logloss\":0.6406466893415969},{\"Logloss\":0.6406298055138689},{\"Logloss\":0.6405946647548516},{\"Logloss\":0.6405751760036227},{\"Logloss\":0.6405419287676916},{\"Logloss\":0.640529387896244},{\"Logloss\":0.6405113168078757},{\"Logloss\":0.6404795448103989},{\"Logloss\":0.6404664987178594},{\"Logloss\":0.6404475790245551},{\"Logloss\":0.6404296534629358},{\"Logloss\":0.6404118687647394},{\"Logloss\":0.6403958943908086},{\"Logloss\":0.6403723580931902},{\"Logloss\":0.640352653805041},{\"Logloss\":0.6403341540264623},{\"Logloss\":0.6403166663490567},{\"Logloss\":0.6402983474082637},{\"Logloss\":0.6402776212845366},{\"Logloss\":0.6402685212967164},{\"Logloss\":0.6402492982265113},{\"Logloss\":0.6402318377833445},{\"Logloss\":0.6402185794129136},{\"Logloss\":0.6402049646688157},{\"Logloss\":0.6401708735266327},{\"Logloss\":0.6401559689348717},{\"Logloss\":0.640138798445692},{\"Logloss\":0.6401166949244389},{\"Logloss\":0.6400980843966174},{\"Logloss\":0.6400791272237362},{\"Logloss\":0.6400532241425859},{\"Logloss\":0.6400420897066524},{\"Logloss\":0.6400202199411045},{\"Logloss\":0.6399932813619525},{\"Logloss\":0.6399761750326328},{\"Logloss\":0.6399489876211719},{\"Logloss\":0.6399239183566213},{\"Logloss\":0.6399082497550826},{\"Logloss\":0.6398726763583237},{\"Logloss\":0.6398544898090973},{\"Logloss\":0.6398290926495955},{\"Logloss\":0.6398144453762015},{\"Logloss\":0.6397912332750448},{\"Logloss\":0.6397780637606473},{\"Logloss\":0.6397622664109818},{\"Logloss\":0.6397485330453262},{\"Logloss\":0.6397335210571405},{\"Logloss\":0.6397187127719101},{\"Logloss\":0.6397030443770223},{\"Logloss\":0.6396838791144058},{\"Logloss\":0.6396748013540673},{\"Logloss\":0.6396569886507754},{\"Logloss\":0.639632397553364},{\"Logloss\":0.6396201017544066},{\"Logloss\":0.6396068968004264},{\"Logloss\":0.6395943471865604},{\"Logloss\":0.6395839745304563},{\"Logloss\":0.6395658616201488},{\"Logloss\":0.6395532553188489},{\"Logloss\":0.6395407536252268},{\"Logloss\":0.6395254247278086},{\"Logloss\":0.6395026382031082},{\"Logloss\":0.6394883043833798},{\"Logloss\":0.6394744661713803},{\"Logloss\":0.6394590844934808},{\"Logloss\":0.6394503382603403},{\"Logloss\":0.6394274918278029},{\"Logloss\":0.6394161398739691},{\"Logloss\":0.6393975723152702},{\"Logloss\":0.6393784815099787},{\"Logloss\":0.6393514374624828},{\"Logloss\":0.6393376344565869},{\"Logloss\":0.639318284648802},{\"Logloss\":0.6392932858723785},{\"Logloss\":0.6392780346339845},{\"Logloss\":0.639262211294776},{\"Logloss\":0.6392497856836148},{\"Logloss\":0.6392371213271745},{\"Logloss\":0.6392208132071295},{\"Logloss\":0.6391973103738565},{\"Logloss\":0.6391733139288112},{\"Logloss\":0.6391545537258584},{\"Logloss\":0.6391372704950166},{\"Logloss\":0.6391272904986403},{\"Logloss\":0.6391059085870346},{\"Logloss\":0.6390951215304117},{\"Logloss\":0.6390800779113343},{\"Logloss\":0.6390708628403177},{\"Logloss\":0.6390575171669206},{\"Logloss\":0.6390441335186368},{\"Logloss\":0.6390288879907495},{\"Logloss\":0.6390104885874297},{\"Logloss\":0.6389931817540533},{\"Logloss\":0.6389807644649004},{\"Logloss\":0.6389690793120985},{\"Logloss\":0.6389530649161355},{\"Logloss\":0.6389377331146472},{\"Logloss\":0.6389270357290825},{\"Logloss\":0.6389114184022172},{\"Logloss\":0.6388913626668674},{\"Logloss\":0.6388746785352042},{\"Logloss\":0.6388563962554713},{\"Logloss\":0.6388419853628559},{\"Logloss\":0.6388273459590735},{\"Logloss\":0.6388063603707632},{\"Logloss\":0.638799183549257},{\"Logloss\":0.6387854869782058},{\"Logloss\":0.6387757984353001},{\"Logloss\":0.6387514741539164},{\"Logloss\":0.6387406584285151},{\"Logloss\":0.638723819730001},{\"Logloss\":0.6386980768582823},{\"Logloss\":0.6386840155688945},{\"Logloss\":0.6386630750920557},{\"Logloss\":0.6386416624259253},{\"Logloss\":0.6386262954884485},{\"Logloss\":0.6386147442582132},{\"Logloss\":0.6386020954686782},{\"Logloss\":0.638572380417241},{\"Logloss\":0.638555638813104},{\"Logloss\":0.6385378373734454},{\"Logloss\":0.6385152058143162},{\"Logloss\":0.6384923018546239},{\"Logloss\":0.6384776408725082},{\"Logloss\":0.6384527312677549},{\"Logloss\":0.6384348220932266},{\"Logloss\":0.6384079195371127},{\"Logloss\":0.6383977807911555},{\"Logloss\":0.6383704955713567},{\"Logloss\":0.6383484928938722},{\"Logloss\":0.6383130749495681},{\"Logloss\":0.6382978770716559},{\"Logloss\":0.6382775027854307},{\"Logloss\":0.6382592714922125},{\"Logloss\":0.6382469920551834},{\"Logloss\":0.638232867792406},{\"Logloss\":0.6382168351326454},{\"Logloss\":0.6381960468845891},{\"Logloss\":0.6381772429236063},{\"Logloss\":0.6381670246803294},{\"Logloss\":0.6381445766457715},{\"Logloss\":0.638130754555922},{\"Logloss\":0.6381103749764826},{\"Logloss\":0.6380727727822467},{\"Logloss\":0.638055950264394},{\"Logloss\":0.6380361517725053},{\"Logloss\":0.6379985156754415},{\"Logloss\":0.6379639390845646},{\"Logloss\":0.63794546965538},{\"Logloss\":0.6379306803087117},{\"Logloss\":0.6379151865888513}],\"test_best_error\":[{\"Logloss\":0.6065014097098963,\"AUC\":0.6878305409148769}]}}"
    },
  "oblivious_trees":
    [
      {
        "leaf_values":
          [
            -0.03021347951851542,
            0.0028755066381266248,
            0,
            0,
            -0.0097137158222285313,
            0.019041208098357344,
            0,
            0,
            -0.045502087858866155,
            -0.0041208445168312369,
            0,
            0,
            0.0019486128704476629,
            0.020849781719060316,
            0,
            0,
            -0.018860476098696895,
            0.012675794172090972,
            -0.0032165022653142875,
            0.026921044249926532,
            -0.0043117054190462186,
            0.02828663327090675,
            0.0032304629293203832,
            0.039023430569766496,
            -0.030444719161474017,
            0.0024190967783157659,
            -0.0094030656715096313,
            0.017044470948246564,
            -0.011806026316729426,
            0.020397857079864235,
            0.0087399134641048433,
            0.032769148735628029
          ],
        "leaf_weights":
          [
            11151.619941234589,
            13434.194718837738,
            0,
            0,
            964.59552049636841,
            3493.2291574478149,
            0,
            0,
            108580.72206926346,
            15413.205075263977,
            0,
            0,
            3412.4877595901489,
            2230.4127526283264,
            0,
            0,
            8872.2200269699097,
            40131.974940299988,
            2416.3062477111816,
            103026.68447971344,
            1424.6129240989685,
            10855.219169616699,
            762.62784576416016,
            50550.746490001678,
            54910.650890350342,
            39851.867209434509,
            12174.578485488892,
            37827.834455490112,
            5073.7583727836609,
            7108.1255331039429,
            4097.1810832023621,
            16929.141222000122
          ],
        "splits":
          [
            {
              "border":0.14094346761703491,
              "float_feature_index":25,
              "split_index":642,
              "split_type":"FloatFeature"
            },
            {
              "border":0.17562970519065857,
              "float_feature_index":8,
              "split_index":235,
              "split_type":"FloatFeature"
            },
            {
              "border":0.14390695095062256,
              "float_feature_index":13,
              "split_index":393,
              "split_type":"FloatFeature"
            },
            {
              "border":0.5,
              "float_feature_index":47,
              "split_index":884,
              "split_type":"FloatFeature"
            },
            {
              "border":0.082602068781852722,
              "float_feature_index":8,
              "split_index":223,
              "split_type":"FloatFeature"
            }
          ]
      },
      {
        "leaf_values":
          [
            -0.041250263617259392,
            0,
            -0.0054693899774541071,
            0,
            -0.013961847897756738,
            0.0012147499309409315,
            0.0021996890656300321,
            0.012308458488042457,
            -0.0051247761093699681,
            0,
            0.011711060472818009,
            0,
            0.0036754111384915333,
            0.020674778005101903,
            0.012930254151537439,
            0.025173444712676851,
            0,
            0,
            0,
            0,
            0,
            0.018998279914390837,
            0,
            0.027681150154673765,
            0,
            0,
            0,
            0,
            0,
            0.033155845342019201,
            0,
            0.039375988624808254
          ],
        "leaf_weights":
          [
            152829.8529047966,
            0,
            5073.8159761428833,
            0,
            54925.100503444672,
            65827.317988395691,
            7293.2287287712097,
            20984.876399993896,
            5292.5888719558716,
            0,
            1766.8582592010498,
            0,
            5466.8831086158752,
            10116.540767669678,
            2634.8118395805359,
            8038.1943202018738,
            0,
            0,
            0,
            0,
            0,
            52072.128203392029,
            0,
            99662.036748409271,
            0,
            0,
            0,
            0,
            0,
            13592.546130180359,
            0,
            49117.215620040894
          ],
        "splits":
          [
            {
              "border":0.15026623010635376,
              "float_feature_index":25,
              "split_index":647,
              "split_type":"FloatFeature"
            },
            {
              "border":0.20344951748847961,
              "float_feature_index":8,
              "split_index":240,
              "split_type":"FloatFeature"
            },
            {
              "border":0.12144127488136292,
              "float_feature_index":25,
              "split_index":634,
              "split_type":"FloatFeature"
            },
            {
              "border":0.13612481951713562,
              "float_feature_index":16,
              "split_index":450,
              "split_type":"FloatFeature"
            },
            {
              "border":0.20689517259597778,
              "float_feature_index":25,
              "split_index":667,
              "split_type":"FloatFeature"
            }
          ]
      },
      {
        "leaf_values":
          [
            -0.04411568968077019,
            0,
            -0.03253277208347561,
            0,
            -0.020818845345381864,
            0,
            -0.0048339031334968009,
            0,
            -0.019089180933213584,
            -0.0033416445960181562,
            -0.013339074558600625,
            0.0082688243375377956,
            -0.0094975047567276913,
            0.0099410755227858864,
            -0.0031424996046169685,
            0.022157599364842843,
            -0.0057243887562846993,
            0,
            -0.014725861143749838,
            0,
            -0.0072313156547888632,
            0,
            0.0051404844617873435,
            0,
            -0.00080749494585774116,
            0.01225869118933625,
            0.0024807561470439241,
            0.023072829995007847,
            0.0051680832979364112,
            0.018999435273923095,
            0.0095973968583866181,
            0.034856855445087487
          ],
        "leaf_weights":
          [
            117232.94709014893,
            0,
            4621.0476455688477,
            0,
            11231.564819812775,
            0,
            680.48114109039307,
            0,
            42291.727581977844,
            24664.55149269104,
            13084.050097465515,
            41597.674483776093,
            16801.295003890991,
            29328.059536457062,
            5767.8665323257446,
            142581.10989046097,
            2718.2660479545593,
            0,
            826.7658486366272,
            0,
            2243.5089011192322,
            0,
            368.91960048675537,
            0,
            2369.3062477111816,
            1797.5901279449463,
            2774.2179737091064,
            11224.707357883453,
            3277.2519536018372,
            5628.194748878479,
            2736.3891291618347,
            68846.503118038177
          ],
        "splits":
          [
            {
              "border":0.14752164483070374,
              "float_feature_index":25,
              "split_index":646,
              "split_type":"FloatFeature"
            },
            {
              "border":0.62517428398132324,
              "float_feature_index":27,
              "split_index":733,
              "split_type":"FloatFeature"
            },
            {
              "border":0.13513031601905823,
              "float_feature_index":8,
              "split_index":231,
